digraph Tree {
node [shape=box] ;
0 [label="X[9] <= 12.5\ngini = 0.5\nsamples = 5686\nvalue = [2843.0, 2843.0]"] ;
1 [label="X[10] <= 2.5\ngini = 0.4086\nsamples = 2657\nvalue = [772.292, 1926.104]"] ;
0 -> 1 [labeldistance=2.5, labelangle=45, headlabel="True"] ;
2 [label="gini = 0.0\nsamples = 1568\nvalue = [0.0, 1626.3495]"] ;
1 -> 2 ;
3 [label="X[0] <= 4.0\ngini = 0.4029\nsamples = 1089\nvalue = [772.292, 299.7545]"] ;
1 -> 3 ;
4 [label="X[14] <= 18.5\ngini = 0.0629\nsamples = 264\nvalue = [247.1334, 8.2977]"] ;
3 -> 4 ;
5 [label="gini = 0.0\nsamples = 4\nvalue = [0.0, 4.1489]"] ;
4 -> 5 ;
6 [label="X[7] <= 8.0\ngini = 0.0325\nsamples = 260\nvalue = [247.1334, 4.1489]"] ;
4 -> 6 ;
7 [label="gini = 0.0\nsamples = 256\nvalue = [247.1334, 0.0]"] ;
6 -> 7 ;
8 [label="gini = -0.0\nsamples = 4\nvalue = [0.0, 4.1489]"] ;
6 -> 8 ;
9 [label="X[8] <= 9.0\ngini = 0.459\nsamples = 825\nvalue = [525.1586, 291.4568]"] ;
3 -> 9 ;
10 [label="gini = 0.0\nsamples = 88\nvalue = [84.9521, 0.0]"] ;
9 -> 10 ;
11 [label="X[12] <= 22.0\ngini = 0.4793\nsamples = 737\nvalue = [440.2065, 291.4568]"] ;
9 -> 11 ;
12 [label="X[3] <= 13.0\ngini = 0.4998\nsamples = 520\nvalue = [254.8564, 265.5265]"] ;
11 -> 12 ;
13 [label="gini = 0.0\nsamples = 72\nvalue = [69.5063, 0.0]"] ;
12 -> 13 ;
14 [label="X[2] <= 24.0\ngini = 0.4842\nsamples = 448\nvalue = [185.3501, 265.5265]"] ;
12 -> 14 ;
15 [label="X[7] <= 8.0\ngini = 0.3836\nsamples = 352\nvalue = [92.675, 265.5265]"] ;
14 -> 15 ;
16 [label="gini = 0.0\nsamples = 96\nvalue = [92.675, 0.0]"] ;
15 -> 16 ;
17 [label="gini = 0.0\nsamples = 256\nvalue = [0.0, 265.5265]"] ;
15 -> 17 ;
18 [label="gini = 0.0\nsamples = 96\nvalue = [92.675, 0.0]"] ;
14 -> 18 ;
19 [label="X[11] <= 15.0\ngini = 0.2153\nsamples = 217\nvalue = [185.3501, 25.9303]"] ;
11 -> 19 ;
20 [label="gini = 0.0\nsamples = 25\nvalue = [0.0, 25.9303]"] ;
19 -> 20 ;
21 [label="gini = -0.0\nsamples = 192\nvalue = [185.3501, 0.0]"] ;
19 -> 21 ;
22 [label="X[19] <= 22.0\ngini = 0.4254\nsamples = 3029\nvalue = [2070.708, 916.896]"] ;
0 -> 22 [labeldistance=2.5, labelangle=-45, headlabel="False"] ;
23 [label="X[21] <= 14.0\ngini = 0.2204\nsamples = 2433\nvalue = [2070.708, 298.7173]"] ;
22 -> 23 ;
24 [label="X[13] <= 19.5\ngini = 0.1255\nsamples = 2289\nvalue = [2070.708, 149.3586]"] ;
23 -> 24 ;
25 [label="gini = 0.0\nsamples = 853\nvalue = [823.4564, 0.0]"] ;
24 -> 25 ;
26 [label="X[19] <= 9.5\ngini = 0.191\nsamples = 1436\nvalue = [1247.2516, 149.3586]"] ;
24 -> 26 ;
27 [label="gini = 0.0\nsamples = 144\nvalue = [0.0, 149.3586]"] ;
26 -> 27 ;
28 [label="gini = -0.0\nsamples = 1292\nvalue = [1247.2516, 0.0]"] ;
26 -> 28 ;
29 [label="gini = 0.0\nsamples = 144\nvalue = [0.0, 149.3586]"] ;
23 -> 29 ;
30 [label="gini = 0.0\nsamples = 596\nvalue = [0.0, 618.1788]"] ;
22 -> 30 ;
}